15 32
15 -0.435237 0.2037 0.189729 -0.0923047 -0.233216 -0.177593 -0.110265 -0.111681 -0.10778 0.22903 -0.107238 -0.103397 -0.242621 -0.382211 0.0662672 -0.0946901 -0.273964 -0.123518 -0.0695467 -0.310967 -0.101193 0.0318104 0.172352 0.107592 0.353714 -0.247104 -0.139705 -0.0727897 0.198673 -0.0461146 0.245108 0.149378
14 -0.354566 0.149692 0.130304 -0.0749218 -0.191542 -0.142644 -0.0857173 -0.102882 -0.0879945 0.190061 -0.0700893 -0.0768787 -0.178189 -0.305652 0.0538057 -0.0794872 -0.237009 -0.101794 -0.0451701 -0.236878 -0.0970819 0.0094561 0.134344 0.0846495 0.281201 -0.20003 -0.112745 -0.0637605 0.176439 -0.0397437 0.203618 0.101273
2 -0.431201 0.202648 0.197711 -0.105818 -0.225003 -0.155149 -0.111128 -0.112105 -0.113585 0.243115 -0.0882642 -0.121079 -0.250927 -0.409559 0.0530478 -0.125977 -0.301077 -0.132679 -0.0685684 -0.323631 -0.119048 0.0168476 0.198515 0.0828914 0.357008 -0.242863 -0.137445 -0.0912671 0.205392 -0.0677004 0.260549 0.152056
8 -0.440883 0.182302 0.172948 -0.0923446 -0.250754 -0.190868 -0.0973724 -0.122018 -0.11274 0.223911 -0.111584 -0.129314 -0.248215 -0.384974 0.046685 -0.112476 -0.300971 -0.135773 -0.0686241 -0.314243 -0.122749 0.0313148 0.203793 0.105656 0.360839 -0.258586 -0.140903 -0.0600115 0.221357 -0.0638728 0.257657 0.125962
3 -0.56359 0.252758 0.238896 -0.114732 -0.294386 -0.232777 -0.139242 -0.131466 -0.137817 0.297742 -0.124097 -0.142936 -0.311935 -0.498481 0.0694174 -0.143841 -0.364881 -0.157496 -0.0974797 -0.39097 -0.147821 0.0340253 0.244879 0.121664 0.453253 -0.305348 -0.160274 -0.0741373 0.274936 -0.0688542 0.320586 0.162763
11 -0.521109 0.239539 0.225582 -0.107789 -0.273425 -0.206107 -0.131872 -0.146674 -0.114592 0.282742 -0.104933 -0.140326 -0.269574 -0.462501 0.0714667 -0.144195 -0.349631 -0.143889 -0.10367 -0.365052 -0.124158 0.0357298 0.233682 0.12918 0.42205 -0.314858 -0.154168 -0.101347 0.26359 -0.0569653 0.295835 0.169687
10 -0.485269 0.219001 0.210872 -0.0896576 -0.265766 -0.177171 -0.110834 -0.110592 -0.105034 0.243794 -0.118345 -0.107026 -0.256761 -0.432805 0.0377793 -0.112371 -0.312329 -0.137651 -0.085198 -0.346119 -0.11579 0.0435439 0.206684 0.120096 0.403503 -0.29013 -0.139271 -0.0882586 0.220253 -0.0532901 0.278362 0.151683
12 -0.352417 0.136635 0.149399 -0.0585698 -0.18196 -0.123367 -0.0725536 -0.0875344 -0.0849805 0.170846 -0.0845988 -0.0997268 -0.205653 -0.32043 0.028382 -0.0974283 -0.220524 -0.0979434 -0.0668419 -0.244386 -0.104884 0.0383905 0.137509 0.0664069 0.27514 -0.210374 -0.0943816 -0.0760373 0.164267 -0.0376148 0.20739 0.119272
7 -0.558157 0.25485 0.239751 -0.114575 -0.297909 -0.18443 -0.119638 -0.147805 -0.126068 0.293929 -0.119322 -0.14092 -0.307185 -0.507222 0.0519494 -0.131772 -0.365503 -0.17203 -0.106061 -0.367278 -0.147845 0.0425045 0.2227 0.11392 0.452667 -0.322053 -0.133886 -0.114118 0.258007 -0.0778994 0.307907 0.166736
1 -0.506429 0.201268 0.230597 -0.0820554 -0.25942 -0.176708 -0.131597 -0.140248 -0.118196 0.258539 -0.103174 -0.131671 -0.276152 -0.459928 0.0435654 -0.134772 -0.340877 -0.142265 -0.09322 -0.357299 -0.1349 0.0485796 0.215121 0.116167 0.409569 -0.303933 -0.119765 -0.108924 0.247305 -0.0720348 0.278171 0.150598
9 -0.346214 0.158736 0.161972 -0.0745196 -0.180655 -0.110981 -0.0745002 -0.105202 -0.0882644 0.189825 -0.0846835 -0.0846639 -0.202493 -0.303587 0.0485178 -0.079141 -0.217628 -0.0906492 -0.0534811 -0.234342 -0.0757115 0.0263478 0.151759 0.0925582 0.260802 -0.197143 -0.0781852 -0.0511161 0.179497 -0.0480852 0.176892 0.106177
13 -0.456021 0.192789 0.212144 -0.0817462 -0.253552 -0.168257 -0.127352 -0.113793 -0.116695 0.250548 -0.0974422 -0.116927 -0.274276 -0.441994 0.0483621 -0.112175 -0.293816 -0.140475 -0.0687122 -0.330902 -0.127976 0.0408021 0.193532 0.10447 0.384973 -0.289282 -0.119013 -0.0972753 0.244272 -0.0535047 0.27672 0.160019
5 -0.373806 0.161186 0.149728 -0.0698923 -0.207896 -0.127682 -0.0813623 -0.0974944 -0.0755707 0.203755 -0.0808262 -0.103721 -0.217306 -0.345679 0.0307184 -0.104301 -0.249427 -0.106111 -0.0740062 -0.257525 -0.0900582 0.0199232 0.17274 0.068766 0.309885 -0.221927 -0.107324 -0.0561242 0.185201 -0.0524602 0.194655 0.120521
6 -0.496824 0.204944 0.191219 -0.103187 -0.25827 -0.20175 -0.116974 -0.127237 -0.132324 0.261511 -0.111398 -0.122486 -0.251366 -0.438111 0.0499425 -0.119978 -0.292419 -0.123617 -0.0808195 -0.328301 -0.12009 0.0194905 0.192676 0.0906118 0.403177 -0.272987 -0.155683 -0.0870273 0.235641 -0.0569582 0.271587 0.166144
4 -0.356586 0.155495 0.14662 -0.0805776 -0.196266 -0.157223 -0.0982136 -0.0839335 -0.0916627 0.183463 -0.0831476 -0.106226 -0.20495 -0.332113 0.0250481 -0.108516 -0.234527 -0.107074 -0.0437032 -0.258701 -0.0948028 0.0336243 0.155917 0.096918 0.28787 -0.192855 -0.119653 -0.0501854 0.159882 -0.051279 0.214429 0.111899
