15 32
6 0.315653 -0.231814 -0.297181 -0.15064 0.0410971 0.215679 -0.127353 0.29936 -0.0334402 0.12511 0.160074 0.0756125 -0.108696 0.321358 -0.428502 -0.297073 0.0333716 -0.493785 0.222961 -0.300986 -0.0461325 0.0285153 -0.179926 -0.320578 -0.199725 0.416854 0.215161 -0.197356 0.542298 0.143562 -0.205204 -0.0805216
3 0.372997 -0.262216 -0.328217 -0.162419 0.0232778 0.249131 -0.154606 0.326592 -0.0297633 0.163364 0.162892 0.0642035 -0.109489 0.36791 -0.468863 -0.302933 0.0412418 -0.579941 0.243985 -0.350074 -0.044124 0.0340471 -0.225081 -0.352571 -0.235329 0.486175 0.246034 -0.216124 0.615996 0.150669 -0.242658 -0.101938
4 0.252338 -0.171988 -0.221641 -0.102522 0.0262755 0.152902 -0.10153 0.23265 -0.0418245 0.0894808 0.10127 0.0322534 -0.0573908 0.23866 -0.322973 -0.204693 0.0391659 -0.385613 0.168467 -0.238288 -0.0284243 0.0292145 -0.14822 -0.234728 -0.160364 0.302061 0.160889 -0.158251 0.392051 0.0877634 -0.171955 -0.0480865
11 0.375934 -0.284458 -0.321142 -0.147994 0.0374498 0.256861 -0.156479 0.34624 -0.0456041 0.171562 0.211851 0.0701571 -0.118534 0.372857 -0.50217 -0.344233 0.0316207 -0.569951 0.244145 -0.345657 -0.0547211 0.0251284 -0.2283 -0.373301 -0.259587 0.49876 0.233624 -0.229105 0.633059 0.147665 -0.260914 -0.0899032
5 0.278863 -0.208499 -0.274147 -0.131647 0.0282654 0.179081 -0.115384 0.254537 -0.0341719 0.131549 0.157869 0.0587433 -0.0866159 0.28615 -0.388261 -0.256711 0.00855737 -0.426715 0.178758 -0.266708 -0.0263843 0.00928369 -0.159659 -0.283577 -0.178127 0.374835 0.180058 -0.163512 0.469875 0.107339 -0.187044 -0.0822386
10 0.34524 -0.250344 -0.32448 -0.153739 0.0532937 0.230004 -0.135633 0.3445 -0.0413672 0.147587 0.183958 0.0775725 -0.114246 0.327878 -0.457873 -0.312982 0.0333513 -0.531884 0.240837 -0.336513 -0.0290926 -0.000841774 -0.190714 -0.346462 -0.230891 0.448207 0.216022 -0.207105 0.574229 0.150812 -0.23033 -0.073334
13 0.353536 -0.257112 -0.327151 -0.162401 0.0580784 0.232209 -0.160176 0.34994 -0.0220295 0.157156 0.177101 0.0832546 -0.106498 0.333272 -0.477545 -0.305263 0.0173117 -0.559475 0.247989 -0.327284 -0.0419132 -0.00200947 -0.192141 -0.361437 -0.226446 0.455268 0.235629 -0.209087 0.585333 0.152365 -0.245575 -0.0759512
12 0.219831 -0.182203 -0.201919 -0.0881289 0.0381094 0.13716 -0.109056 0.226371 -0.0160128 0.113393 0.133792 0.0366262 -0.0760696 0.201543 -0.309123 -0.205776 0.00189578 -0.35069 0.136218 -0.210362 -0.0328876 -0.00404042 -0.14019 -0.238266 -0.130943 0.27581 0.145624 -0.146427 0.390247 0.077434 -0.140485 -0.0615833
2 0.312299 -0.261148 -0.289775 -0.15278 0.041965 0.232331 -0.140968 0.328227 -0.0458662 0.1447 0.184614 0.0798304 -0.0942508 0.319661 -0.453529 -0.298501 0.0276676 -0.506395 0.215129 -0.306101 -0.0249305 0.00432051 -0.183673 -0.314527 -0.227802 0.421659 0.196102 -0.214611 0.576835 0.123899 -0.232486 -0.0736682
14 0.281302 -0.219852 -0.239092 -0.110651 0.0332848 0.171114 -0.118866 0.27715 -0.0225624 0.115004 0.157645 0.0470568 -0.0817626 0.277204 -0.376956 -0.265096 0.0191567 -0.444046 0.193548 -0.278614 -0.0330802 0.0132945 -0.17363 -0.262309 -0.195553 0.364076 0.188769 -0.177284 0.469447 0.103059 -0.188612 -0.0648124
15 0.279441 -0.231731 -0.270717 -0.139609 0.0339467 0.182046 -0.118783 0.284173 -0.0362017 0.126341 0.164033 0.0740685 -0.0913885 0.277445 -0.373505 -0.271785 0.0205063 -0.455347 0.206253 -0.281014 -0.0199731 0.0116363 -0.158822 -0.288676 -0.192316 0.361821 0.187101 -0.173233 0.49789 0.103877 -0.204252 -0.0680116
8 0.292901 -0.215405 -0.265609 -0.122957 0.0308293 0.2029 -0.13083 0.296819 -0.0374988 0.130916 0.149923 0.0616591 -0.0937617 0.297564 -0.409023 -0.265005 0.0264852 -0.4648 0.18728 -0.291136 -0.0433154 0.0276625 -0.184307 -0.28398 -0.189124 0.39639 0.188678 -0.173752 0.518144 0.13286 -0.203208 -0.0762313
9 0.172296 -0.132203 -0.170306 -0.0921587 0.0106408 0.114143 -0.0768075 0.181904 -0.0175658 0.0910159 0.0796179 0.0343225 -0.0571593 0.16538 -0.231148 -0.155227 0.0154034 -0.281103 0.105621 -0.155846 -0.00875612 -0.0105052 -0.0910875 -0.18147 -0.128614 0.244043 0.111985 -0.113747 0.307624 0.0853219 -0.117093 -0.0544335
1 0.268842 -0.216212 -0.248124 -0.137955 0.0465046 0.166741 -0.123916 0.26034 -0.0198184 0.129223 0.134258 0.0622011 -0.104861 0.266521 -0.359279 -0.2412 0.0128779 -0.413369 0.188989 -0.249474 -0.0252086 -0.00247119 -0.159948 -0.295199 -0.190405 0.379346 0.167388 -0.172669 0.466881 0.107727 -0.196805 -0.0810101
7 0.374964 -0.287888 -0.349386 -0.18115 0.0547021 0.258429 -0.16226 0.359844 -0.0470792 0.177796 0.210645 0.0863863 -0.130825 0.365785 -0.488717 -0.324994 0.039289 -0.590991 0.253064 -0.35425 -0.0596315 -0.00103853 -0.229933 -0.383298 -0.250568 0.502964 0.249254 -0.23359 0.627977 0.150267 -0.263173 -0.0874676
